digraph Tree {
node [shape=box] ;
graph [ranksep=equally, splines=polyline] ;
0 [label="user_past_purchases <= 5.5\ngini = 0.041\nsamples = 100.0%\nvalue = [0.979, 0.021]"] ;
1 [label="user_past_purchases <= 0.5\ngini = 0.027\nsamples = 72.5%\nvalue = [0.986, 0.014]"] ;
0 -> 1 [labeldistance=2.5, labelangle=45, headlabel="True"] ;
2 [label="hour <= 12.5\ngini = 0.001\nsamples = 13.9%\nvalue = [0.999, 0.001]"] ;
1 -> 2 ;
3 [label="email_version <= 0.5\ngini = 0.001\nsamples = 10.8%\nvalue = [1.0, 0.0]"] ;
2 -> 3 ;
4 [label="gini = 0.0\nsamples = 5.4%\nvalue = [1.0, 0.0]"] ;
3 -> 4 ;
5 [label="gini = 0.001\nsamples = 5.4%\nvalue = [0.999, 0.001]"] ;
3 -> 5 ;
6 [label="user_country <= 2.5\ngini = 0.003\nsamples = 3.0%\nvalue = [0.999, 0.001]"] ;
2 -> 6 ;
7 [label="gini = 0.0\nsamples = 1.2%\nvalue = [1.0, 0.0]"] ;
6 -> 7 ;
8 [label="gini = 0.004\nsamples = 1.8%\nvalue = [0.998, 0.002]"] ;
6 -> 8 ;
9 [label="email_version <= 0.5\ngini = 0.033\nsamples = 58.6%\nvalue = [0.983, 0.017]"] ;
1 -> 9 ;
10 [label="user_country <= 1.5\ngini = 0.022\nsamples = 29.5%\nvalue = [0.989, 0.011]"] ;
9 -> 10 ;
11 [label="gini = 0.007\nsamples = 5.8%\nvalue = [0.996, 0.004]"] ;
10 -> 11 ;
12 [label="gini = 0.026\nsamples = 23.7%\nvalue = [0.987, 0.013]"] ;
10 -> 12 ;
13 [label="user_country <= 1.5\ngini = 0.044\nsamples = 29.1%\nvalue = [0.978, 0.022]"] ;
9 -> 13 ;
14 [label="gini = 0.016\nsamples = 5.8%\nvalue = [0.992, 0.008]"] ;
13 -> 14 ;
15 [label="gini = 0.051\nsamples = 23.3%\nvalue = [0.974, 0.026]"] ;
13 -> 15 ;
16 [label="user_country <= 1.5\ngini = 0.079\nsamples = 27.5%\nvalue = [0.959, 0.041]"] ;
0 -> 16 [labeldistance=2.5, labelangle=-45, headlabel="False"] ;
17 [label="user_past_purchases <= 20.5\ngini = 0.033\nsamples = 5.6%\nvalue = [0.983, 0.017]"] ;
16 -> 17 ;
18 [label="Weekday <= 0.5\ngini = 0.032\nsamples = 5.6%\nvalue = [0.983, 0.017]"] ;
17 -> 18 ;
19 [label="gini = 0.017\nsamples = 2.4%\nvalue = [0.991, 0.009]"] ;
18 -> 19 ;
20 [label="gini = 0.044\nsamples = 3.2%\nvalue = [0.978, 0.022]"] ;
18 -> 20 ;
21 [label="gini = 0.0\nsamples = 0.0%\nvalue = [0.0, 1.0]"] ;
17 -> 21 ;
22 [label="user_past_purchases <= 10.5\ngini = 0.09\nsamples = 21.8%\nvalue = [0.953, 0.047]"] ;
16 -> 22 ;
23 [label="email_version <= 0.5\ngini = 0.08\nsamples = 18.8%\nvalue = [0.958, 0.042]"] ;
22 -> 23 ;
24 [label="gini = 0.062\nsamples = 9.4%\nvalue = [0.968, 0.032]"] ;
23 -> 24 ;
25 [label="gini = 0.099\nsamples = 9.4%\nvalue = [0.948, 0.052]"] ;
23 -> 25 ;
26 [label="Weekday <= 0.5\ngini = 0.148\nsamples = 3.1%\nvalue = [0.92, 0.08]"] ;
22 -> 26 ;
27 [label="gini = 0.099\nsamples = 1.3%\nvalue = [0.948, 0.052]"] ;
26 -> 27 ;
28 [label="gini = 0.182\nsamples = 1.7%\nvalue = [0.899, 0.101]"] ;
26 -> 28 ;
{rank=same ; 0} ;
{rank=same ; 1; 16} ;
{rank=same ; 2; 9; 17; 22} ;
{rank=same ; 3; 6; 10; 13; 18; 23; 26} ;
{rank=same ; 4; 5; 7; 8; 11; 12; 14; 15; 19; 20; 21; 24; 25; 27; 28} ;
}